digraph Tree {
node [shape=box] ;
0 [label="glucose <= 0.081\nentropy = 0.929\nsamples = 514\nvalue = [337, 177]"] ;
1 [label="age <= -0.403\nentropy = 0.645\nsamples = 304\nvalue = [254, 50]"] ;
0 -> 1 [labeldistance=2.5, labelangle=45, headlabel="True"] ;
2 [label="bmi <= -0.481\nentropy = 0.273\nsamples = 171\nvalue = [163, 8]"] ;
1 -> 2 ;
3 [label="entropy = 0.0\nsamples = 77\nvalue = [77, 0]"] ;
2 -> 3 ;
4 [label="insulin <= 0.097\nentropy = 0.42\nsamples = 94\nvalue = [86, 8]"] ;
2 -> 4 ;
5 [label="bloodpresure <= 1.286\nentropy = 0.579\nsamples = 58\nvalue = [50, 8]"] ;
4 -> 5 ;
6 [label="pregnancies <= 0.936\nentropy = 0.537\nsamples = 57\nvalue = [50, 7]"] ;
5 -> 6 ;
7 [label="bloodpresure <= -0.005\nentropy = 0.491\nsamples = 56\nvalue = [50, 6]"] ;
6 -> 7 ;
8 [label="insulin <= 0.067\nentropy = 0.722\nsamples = 30\nvalue = [24, 6]"] ;
7 -> 8 ;
9 [label="bmi <= 0.039\nentropy = 0.592\nsamples = 28\nvalue = [24, 4]"] ;
8 -> 9 ;
10 [label="entropy = 0.0\nsamples = 14\nvalue = [14, 0]"] ;
9 -> 10 ;
11 [label="glucose <= -1.013\nentropy = 0.863\nsamples = 14\nvalue = [10, 4]"] ;
9 -> 11 ;
12 [label="entropy = 0.0\nsamples = 5\nvalue = [5, 0]"] ;
11 -> 12 ;
13 [label="dpf <= -0.176\nentropy = 0.991\nsamples = 9\nvalue = [5, 4]"] ;
11 -> 13 ;
14 [label="bloodpresure <= -2.434\nentropy = 0.65\nsamples = 6\nvalue = [5, 1]"] ;
13 -> 14 ;
15 [label="entropy = 0.0\nsamples = 1\nvalue = [0, 1]"] ;
14 -> 15 ;
16 [label="entropy = 0.0\nsamples = 5\nvalue = [5, 0]"] ;
14 -> 16 ;
17 [label="entropy = 0.0\nsamples = 3\nvalue = [0, 3]"] ;
13 -> 17 ;
18 [label="entropy = 0.0\nsamples = 2\nvalue = [0, 2]"] ;
8 -> 18 ;
19 [label="entropy = 0.0\nsamples = 26\nvalue = [26, 0]"] ;
7 -> 19 ;
20 [label="entropy = 0.0\nsamples = 1\nvalue = [0, 1]"] ;
6 -> 20 ;
21 [label="entropy = 0.0\nsamples = 1\nvalue = [0, 1]"] ;
5 -> 21 ;
22 [label="entropy = 0.0\nsamples = 36\nvalue = [36, 0]"] ;
4 -> 22 ;
23 [label="bmi <= -0.64\nentropy = 0.9\nsamples = 133\nvalue = [91, 42]"] ;
1 -> 23 ;
24 [label="entropy = 0.0\nsamples = 27\nvalue = [27, 0]"] ;
23 -> 24 ;
25 [label="dpf <= 0.462\nentropy = 0.969\nsamples = 106\nvalue = [64, 42]"] ;
23 -> 25 ;
26 [label="glucose <= -0.857\nentropy = 0.855\nsamples = 75\nvalue = [54, 21]"] ;
25 -> 26 ;
27 [label="glucose <= -2.89\nentropy = 0.297\nsamples = 19\nvalue = [18, 1]"] ;
26 -> 27 ;
28 [label="entropy = 0.0\nsamples = 1\nvalue = [0, 1]"] ;
27 -> 28 ;
29 [label="entropy = 0.0\nsamples = 18\nvalue = [18, 0]"] ;
27 -> 29 ;
30 [label="age <= 1.723\nentropy = 0.94\nsamples = 56\nvalue = [36, 20]"] ;
26 -> 30 ;
31 [label="insulin <= 0.852\nentropy = 0.971\nsamples = 50\nvalue = [30, 20]"] ;
30 -> 31 ;
32 [label="bmi <= -0.563\nentropy = 0.944\nsamples = 47\nvalue = [30, 17]"] ;
31 -> 32 ;
33 [label="entropy = 0.0\nsamples = 2\nvalue = [0, 2]"] ;
32 -> 33 ;
34 [label="dpf <= -0.884\nentropy = 0.918\nsamples = 45\nvalue = [30, 15]"] ;
32 -> 34 ;
35 [label="entropy = 0.0\nsamples = 7\nvalue = [7, 0]"] ;
34 -> 35 ;
36 [label="dpf <= 0.043\nentropy = 0.968\nsamples = 38\nvalue = [23, 15]"] ;
34 -> 36 ;
37 [label="bmi <= -0.126\nentropy = 0.99\nsamples = 34\nvalue = [19, 15]"] ;
36 -> 37 ;
38 [label="dpf <= -0.735\nentropy = 0.764\nsamples = 9\nvalue = [2, 7]"] ;
37 -> 38 ;
39 [label="dpf <= -0.851\nentropy = 1.0\nsamples = 4\nvalue = [2, 2]"] ;
38 -> 39 ;
40 [label="entropy = 0.0\nsamples = 2\nvalue = [0, 2]"] ;
39 -> 40 ;
41 [label="entropy = 0.0\nsamples = 2\nvalue = [2, 0]"] ;
39 -> 41 ;
42 [label="entropy = 0.0\nsamples = 5\nvalue = [0, 5]"] ;
38 -> 42 ;
43 [label="age <= 0.15\nentropy = 0.904\nsamples = 25\nvalue = [17, 8]"] ;
37 -> 43 ;
44 [label="entropy = 0.0\nsamples = 8\nvalue = [8, 0]"] ;
43 -> 44 ;
45 [label="insulin <= 0.392\nentropy = 0.998\nsamples = 17\nvalue = [9, 8]"] ;
43 -> 45 ;
46 [label="pregnancies <= 1.381\nentropy = 0.971\nsamples = 15\nvalue = [9, 6]"] ;
45 -> 46 ;
47 [label="bloodpresure <= 0.408\nentropy = 1.0\nsamples = 12\nvalue = [6, 6]"] ;
46 -> 47 ;
48 [label="dpf <= -0.768\nentropy = 0.65\nsamples = 6\nvalue = [1, 5]"] ;
47 -> 48 ;
49 [label="entropy = 0.0\nsamples = 1\nvalue = [1, 0]"] ;
48 -> 49 ;
50 [label="entropy = 0.0\nsamples = 5\nvalue = [0, 5]"] ;
48 -> 50 ;
51 [label="bloodpresure <= 1.441\nentropy = 0.65\nsamples = 6\nvalue = [5, 1]"] ;
47 -> 51 ;
52 [label="entropy = 0.0\nsamples = 5\nvalue = [5, 0]"] ;
51 -> 52 ;
53 [label="entropy = 0.0\nsamples = 1\nvalue = [0, 1]"] ;
51 -> 53 ;
54 [label="entropy = 0.0\nsamples = 3\nvalue = [3, 0]"] ;
46 -> 54 ;
55 [label="entropy = 0.0\nsamples = 2\nvalue = [0, 2]"] ;
45 -> 55 ;
56 [label="entropy = 0.0\nsamples = 4\nvalue = [4, 0]"] ;
36 -> 56 ;
57 [label="entropy = 0.0\nsamples = 3\nvalue = [0, 3]"] ;
31 -> 57 ;
58 [label="entropy = 0.0\nsamples = 6\nvalue = [6, 0]"] ;
30 -> 58 ;
59 [label="pregnancies <= 0.194\nentropy = 0.907\nsamples = 31\nvalue = [10, 21]"] ;
25 -> 59 ;
60 [label="insulin <= 0.462\nentropy = 0.961\nsamples = 13\nvalue = [8, 5]"] ;
59 -> 60 ;
61 [label="bmi <= 0.147\nentropy = 0.722\nsamples = 10\nvalue = [8, 2]"] ;
60 -> 61 ;
62 [label="age <= 0.235\nentropy = 1.0\nsamples = 4\nvalue = [2, 2]"] ;
61 -> 62 ;
63 [label="entropy = 0.0\nsamples = 2\nvalue = [2, 0]"] ;
62 -> 63 ;
64 [label="entropy = 0.0\nsamples = 2\nvalue = [0, 2]"] ;
62 -> 64 ;
65 [label="entropy = 0.0\nsamples = 6\nvalue = [6, 0]"] ;
61 -> 65 ;
66 [label="entropy = 0.0\nsamples = 3\nvalue = [0, 3]"] ;
60 -> 66 ;
67 [label="bloodpresure <= 0.925\nentropy = 0.503\nsamples = 18\nvalue = [2, 16]"] ;
59 -> 67 ;
68 [label="glucose <= -1.076\nentropy = 0.323\nsamples = 17\nvalue = [1, 16]"] ;
67 -> 68 ;
69 [label="bmi <= 0.274\nentropy = 1.0\nsamples = 2\nvalue = [1, 1]"] ;
68 -> 69 ;
70 [label="entropy = 0.0\nsamples = 1\nvalue = [1, 0]"] ;
69 -> 70 ;
71 [label="entropy = 0.0\nsamples = 1\nvalue = [0, 1]"] ;
69 -> 71 ;
72 [label="entropy = 0.0\nsamples = 15\nvalue = [0, 15]"] ;
68 -> 72 ;
73 [label="entropy = 0.0\nsamples = 1\nvalue = [1, 0]"] ;
67 -> 73 ;
74 [label="glucose <= 1.176\nentropy = 0.968\nsamples = 210\nvalue = [83, 127]"] ;
0 -> 74 [labeldistance=2.5, labelangle=-45, headlabel="False"] ;
75 [label="bmi <= 0.375\nentropy = 1.0\nsamples = 142\nvalue = [72, 70]"] ;
74 -> 75 ;
76 [label="dpf <= 1.162\nentropy = 0.961\nsamples = 99\nvalue = [61, 38]"] ;
75 -> 76 ;
77 [label="bmi <= -1.122\nentropy = 0.929\nsamples = 93\nvalue = [61, 32]"] ;
76 -> 77 ;
78 [label="entropy = 0.0\nsamples = 8\nvalue = [8, 0]"] ;
77 -> 78 ;
79 [label="bloodpresure <= 1.131\nentropy = 0.956\nsamples = 85\nvalue = [53, 32]"] ;
77 -> 79 ;
80 [label="age <= 2.318\nentropy = 0.937\nsamples = 82\nvalue = [53, 29]"] ;
79 -> 80 ;
81 [label="age <= 0.66\nentropy = 0.959\nsamples = 76\nvalue = [47, 29]"] ;
80 -> 81 ;
82 [label="insulin <= 0.327\nentropy = 0.873\nsamples = 58\nvalue = [41, 17]"] ;
81 -> 82 ;
83 [label="dpf <= -0.858\nentropy = 0.981\nsamples = 31\nvalue = [18, 13]"] ;
82 -> 83 ;
84 [label="entropy = 0.0\nsamples = 5\nvalue = [5, 0]"] ;
83 -> 84 ;
85 [label="age <= -0.913\nentropy = 1.0\nsamples = 26\nvalue = [13, 13]"] ;
83 -> 85 ;
86 [label="bloodpresure <= -0.109\nentropy = 0.811\nsamples = 8\nvalue = [6, 2]"] ;
85 -> 86 ;
87 [label="glucose <= 0.441\nentropy = 1.0\nsamples = 4\nvalue = [2, 2]"] ;
86 -> 87 ;
88 [label="entropy = 0.0\nsamples = 1\nvalue = [0, 1]"] ;
87 -> 88 ;
89 [label="skinthickness <= -0.692\nentropy = 0.918\nsamples = 3\nvalue = [2, 1]"] ;
87 -> 89 ;
90 [label="entropy = 0.0\nsamples = 1\nvalue = [0, 1]"] ;
89 -> 90 ;
91 [label="entropy = 0.0\nsamples = 2\nvalue = [2, 0]"] ;
89 -> 91 ;
92 [label="entropy = 0.0\nsamples = 4\nvalue = [4, 0]"] ;
86 -> 92 ;
93 [label="pregnancies <= 0.194\nentropy = 0.964\nsamples = 18\nvalue = [7, 11]"] ;
85 -> 93 ;
94 [label="glucose <= 0.269\nentropy = 0.779\nsamples = 13\nvalue = [3, 10]"] ;
93 -> 94 ;
95 [label="bmi <= -0.544\nentropy = 1.0\nsamples = 6\nvalue = [3, 3]"] ;
94 -> 95 ;
96 [label="entropy = 0.0\nsamples = 2\nvalue = [0, 2]"] ;
95 -> 96 ;
97 [label="glucose <= 0.175\nentropy = 0.811\nsamples = 4\nvalue = [3, 1]"] ;
95 -> 97 ;
98 [label="entropy = 0.0\nsamples = 1\nvalue = [0, 1]"] ;
97 -> 98 ;
99 [label="entropy = 0.0\nsamples = 3\nvalue = [3, 0]"] ;
97 -> 99 ;
100 [label="entropy = 0.0\nsamples = 7\nvalue = [0, 7]"] ;
94 -> 100 ;
101 [label="age <= 0.362\nentropy = 0.722\nsamples = 5\nvalue = [4, 1]"] ;
93 -> 101 ;
102 [label="entropy = 0.0\nsamples = 3\nvalue = [3, 0]"] ;
101 -> 102 ;
103 [label="bloodpresure <= 0.615\nentropy = 1.0\nsamples = 2\nvalue = [1, 1]"] ;
101 -> 103 ;
104 [label="entropy = 0.0\nsamples = 1\nvalue = [0, 1]"] ;
103 -> 104 ;
105 [label="entropy = 0.0\nsamples = 1\nvalue = [1, 0]"] ;
103 -> 105 ;
106 [label="skinthickness <= 0.75\nentropy = 0.605\nsamples = 27\nvalue = [23, 4]"] ;
82 -> 106 ;
107 [label="insulin <= 1.958\nentropy = 0.276\nsamples = 21\nvalue = [20, 1]"] ;
106 -> 107 ;
108 [label="entropy = 0.0\nsamples = 18\nvalue = [18, 0]"] ;
107 -> 108 ;
109 [label="skinthickness <= 0.217\nentropy = 0.918\nsamples = 3\nvalue = [2, 1]"] ;
107 -> 109 ;
110 [label="entropy = 0.0\nsamples = 2\nvalue = [2, 0]"] ;
109 -> 110 ;
111 [label="entropy = 0.0\nsamples = 1\nvalue = [0, 1]"] ;
109 -> 111 ;
112 [label="insulin <= 0.457\nentropy = 1.0\nsamples = 6\nvalue = [3, 3]"] ;
106 -> 112 ;
113 [label="entropy = 0.0\nsamples = 2\nvalue = [2, 0]"] ;
112 -> 113 ;
114 [label="pregnancies <= -0.102\nentropy = 0.811\nsamples = 4\nvalue = [1, 3]"] ;
112 -> 114 ;
115 [label="entropy = 0.0\nsamples = 3\nvalue = [0, 3]"] ;
114 -> 115 ;
116 [label="entropy = 0.0\nsamples = 1\nvalue = [1, 0]"] ;
114 -> 116 ;
117 [label="dpf <= -0.683\nentropy = 0.918\nsamples = 18\nvalue = [6, 12]"] ;
81 -> 117 ;
118 [label="glucose <= 0.582\nentropy = 0.954\nsamples = 8\nvalue = [5, 3]"] ;
117 -> 118 ;
119 [label="entropy = 0.0\nsamples = 4\nvalue = [4, 0]"] ;
118 -> 119 ;
120 [label="bloodpresure <= 0.511\nentropy = 0.811\nsamples = 4\nvalue = [1, 3]"] ;
118 -> 120 ;
121 [label="entropy = 0.0\nsamples = 1\nvalue = [1, 0]"] ;
120 -> 121 ;
122 [label="entropy = 0.0\nsamples = 3\nvalue = [0, 3]"] ;
120 -> 122 ;
123 [label="insulin <= 0.457\nentropy = 0.469\nsamples = 10\nvalue = [1, 9]"] ;
117 -> 123 ;
124 [label="entropy = 0.0\nsamples = 8\nvalue = [0, 8]"] ;
123 -> 124 ;
125 [label="dpf <= 0.589\nentropy = 1.0\nsamples = 2\nvalue = [1, 1]"] ;
123 -> 125 ;
126 [label="entropy = 0.0\nsamples = 1\nvalue = [1, 0]"] ;
125 -> 126 ;
127 [label="entropy = 0.0\nsamples = 1\nvalue = [0, 1]"] ;
125 -> 127 ;
128 [label="entropy = 0.0\nsamples = 6\nvalue = [6, 0]"] ;
80 -> 128 ;
129 [label="entropy = 0.0\nsamples = 3\nvalue = [0, 3]"] ;
79 -> 129 ;
130 [label="entropy = 0.0\nsamples = 6\nvalue = [0, 6]"] ;
76 -> 130 ;
131 [label="glucose <= 0.207\nentropy = 0.82\nsamples = 43\nvalue = [11, 32]"] ;
75 -> 131 ;
132 [label="entropy = 0.0\nsamples = 2\nvalue = [2, 0]"] ;
131 -> 132 ;
133 [label="glucose <= 0.926\nentropy = 0.759\nsamples = 41\nvalue = [9, 32]"] ;
131 -> 133 ;
134 [label="dpf <= -0.57\nentropy = 0.567\nsamples = 30\nvalue = [4, 26]"] ;
133 -> 134 ;
135 [label="age <= 0.405\nentropy = 0.954\nsamples = 8\nvalue = [3, 5]"] ;
134 -> 135 ;
136 [label="entropy = 0.0\nsamples = 2\nvalue = [0, 2]"] ;
135 -> 136 ;
137 [label="age <= 0.745\nentropy = 1.0\nsamples = 6\nvalue = [3, 3]"] ;
135 -> 137 ;
138 [label="entropy = 0.0\nsamples = 2\nvalue = [2, 0]"] ;
137 -> 138 ;
139 [label="age <= 1.127\nentropy = 0.811\nsamples = 4\nvalue = [1, 3]"] ;
137 -> 139 ;
140 [label="entropy = 0.0\nsamples = 3\nvalue = [0, 3]"] ;
139 -> 140 ;
141 [label="entropy = 0.0\nsamples = 1\nvalue = [1, 0]"] ;
139 -> 141 ;
142 [label="bmi <= 1.13\nentropy = 0.267\nsamples = 22\nvalue = [1, 21]"] ;
134 -> 142 ;
143 [label="entropy = 0.0\nsamples = 14\nvalue = [0, 14]"] ;
142 -> 143 ;
144 [label="bmi <= 1.244\nentropy = 0.544\nsamples = 8\nvalue = [1, 7]"] ;
142 -> 144 ;
145 [label="entropy = 0.0\nsamples = 1\nvalue = [1, 0]"] ;
144 -> 145 ;
146 [label="entropy = 0.0\nsamples = 7\nvalue = [0, 7]"] ;
144 -> 146 ;
147 [label="skinthickness <= 0.625\nentropy = 0.994\nsamples = 11\nvalue = [5, 6]"] ;
133 -> 147 ;
148 [label="entropy = 0.0\nsamples = 4\nvalue = [0, 4]"] ;
147 -> 148 ;
149 [label="bmi <= 1.225\nentropy = 0.863\nsamples = 7\nvalue = [5, 2]"] ;
147 -> 149 ;
150 [label="entropy = 0.0\nsamples = 5\nvalue = [5, 0]"] ;
149 -> 150 ;
151 [label="entropy = 0.0\nsamples = 2\nvalue = [0, 2]"] ;
149 -> 151 ;
152 [label="age <= 2.488\nentropy = 0.639\nsamples = 68\nvalue = [11, 57]"] ;
74 -> 152 ;
153 [label="insulin <= 4.77\nentropy = 0.538\nsamples = 65\nvalue = [8, 57]"] ;
152 -> 153 ;
154 [label="bmi <= -1.128\nentropy = 0.459\nsamples = 62\nvalue = [6, 56]"] ;
153 -> 154 ;
155 [label="entropy = 0.0\nsamples = 1\nvalue = [1, 0]"] ;
154 -> 155 ;
156 [label="bloodpresure <= 1.209\nentropy = 0.409\nsamples = 61\nvalue = [5, 56]"] ;
154 -> 156 ;
157 [label="insulin <= 0.414\nentropy = 0.297\nsamples = 57\nvalue = [3, 54]"] ;
156 -> 157 ;
158 [label="entropy = 0.0\nsamples = 31\nvalue = [0, 31]"] ;
157 -> 158 ;
159 [label="skinthickness <= -0.19\nentropy = 0.516\nsamples = 26\nvalue = [3, 23]"] ;
157 -> 159 ;
160 [label="glucose <= 2.146\nentropy = 1.0\nsamples = 4\nvalue = [2, 2]"] ;
159 -> 160 ;
161 [label="entropy = 0.0\nsamples = 2\nvalue = [0, 2]"] ;
160 -> 161 ;
162 [label="entropy = 0.0\nsamples = 2\nvalue = [2, 0]"] ;
160 -> 162 ;
163 [label="bmi <= 1.726\nentropy = 0.267\nsamples = 22\nvalue = [1, 21]"] ;
159 -> 163 ;
164 [label="entropy = 0.0\nsamples = 21\nvalue = [0, 21]"] ;
163 -> 164 ;
165 [label="entropy = 0.0\nsamples = 1\nvalue = [1, 0]"] ;
163 -> 165 ;
166 [label="bmi <= 0.496\nentropy = 1.0\nsamples = 4\nvalue = [2, 2]"] ;
156 -> 166 ;
167 [label="entropy = 0.0\nsamples = 2\nvalue = [2, 0]"] ;
166 -> 167 ;
168 [label="entropy = 0.0\nsamples = 2\nvalue = [0, 2]"] ;
166 -> 168 ;
169 [label="bloodpresure <= -0.212\nentropy = 0.918\nsamples = 3\nvalue = [2, 1]"] ;
153 -> 169 ;
170 [label="entropy = 0.0\nsamples = 1\nvalue = [0, 1]"] ;
169 -> 170 ;
171 [label="entropy = 0.0\nsamples = 2\nvalue = [2, 0]"] ;
169 -> 171 ;
172 [label="entropy = 0.0\nsamples = 3\nvalue = [3, 0]"] ;
152 -> 172 ;
}